{
    "sizes": [
        56,
        3,
        8
    ],
    "layers": [
        {
            "hello": {},
            "there": {},
            "how": {},
            "are": {},
            "you": {},
            "hey": {},
            "hi": {},
            "halo": {},
            "its": {},
            "going": {},
            "hai": {},
            "whats": {},
            "up": {},
            "good": {},
            "morning": {},
            "evening": {},
            "night": {},
            "lol": {},
            "haha": {},
            "search": {},
            "naphnaphz": {},
            "what": {},
            "is": {},
            "life": {},
            "math": {},
            "image": {},
            "hows": {},
            "the": {},
            "weather": {},
            "in": {},
            "surabaya": {},
            "today": {},
            "jakarta": {},
            "meaning": {},
            "of": {},
            "tell": {},
            "me": {},
            "love": {},
            "definition": {},
            "humanity": {},
            "destiny": {},
            "im": {},
            "fine": {},
            "great": {},
            "as": {},
            "always": {},
            "not": {},
            "that": {},
            "pretty": {},
            "awful": {},
            "really": {},
            "bad": {},
            "please": {},
            "it": {},
            "rainy": {},
            "check": {}
        },
        {
            "0": {
                "bias": -0.37660831212997437,
                "weights": {
                    "hello": -0.9683434367179871,
                    "there": -1.008461833000183,
                    "how": 1.7487629652023315,
                    "are": 1.1553839445114136,
                    "you": 1.2841646671295166,
                    "hey": -1.989455223083496,
                    "hi": -1.990718126296997,
                    "halo": -1.9926589727401733,
                    "its": 1.1699742078781128,
                    "going": 1.2682573795318604,
                    "hai": -1.9904191493988037,
                    "whats": 2.00992488861084,
                    "up": 1.9918299913406372,
                    "good": 2.3968751430511475,
                    "morning": -4.759527683258057,
                    "evening": -4.760339260101318,
                    "night": -4.754990100860596,
                    "lol": -2.5184295177459717,
                    "haha": -2.5131092071533203,
                    "search": 1.7100505828857422,
                    "naphnaphz": 1.3986636400222778,
                    "what": 2.009197950363159,
                    "is": 0.8235846161842346,
                    "life": 1.0750839710235596,
                    "math": 0.7206521034240723,
                    "image": 0.7017835378646851,
                    "hows": -0.3382899761199951,
                    "the": -0.7995578050613403,
                    "weather": -2.4975223541259766,
                    "in": -1.004302978515625,
                    "surabaya": -0.637505292892456,
                    "today": -1.882534146308899,
                    "jakarta": -0.1987382173538208,
                    "meaning": 1.262934684753418,
                    "of": 2.08486008644104,
                    "tell": 0.5324785113334656,
                    "me": 0.3192618191242218,
                    "love": 0.5111624002456665,
                    "definition": 0.8239553570747375,
                    "humanity": 0.014584704302251339,
                    "destiny": 0.5939686894416809,
                    "im": 2.3258473873138428,
                    "fine": 3.526294231414795,
                    "great": 1.3502237796783447,
                    "as": 1.2854152917861938,
                    "always": 1.4270538091659546,
                    "not": -1.5685842037200928,
                    "that": -1.4193137884140015,
                    "pretty": -0.2923613488674164,
                    "awful": -0.2725716531276703,
                    "really": -0.28439098596572876,
                    "bad": -0.27929365634918213,
                    "please": -0.4606659412384033,
                    "it": -0.32735684514045715,
                    "rainy": -0.6243381500244141,
                    "check": -0.3365006148815155
                }
            },
            "1": {
                "bias": 0.17629365622997284,
                "weights": {
                    "hello": -0.34439224004745483,
                    "there": -0.44581693410873413,
                    "how": -0.6820851564407349,
                    "are": -0.5506316423416138,
                    "you": -0.2572402358055115,
                    "hey": -0.7898010611534119,
                    "hi": -0.7894362807273865,
                    "halo": -0.7890874147415161,
                    "its": -0.502194881439209,
                    "going": -0.3058214485645294,
                    "hai": -0.7892912030220032,
                    "whats": -0.7412425875663757,
                    "up": -0.7443212866783142,
                    "good": -1.8692668676376343,
                    "morning": 0.8738930225372314,
                    "evening": 0.8745874762535095,
                    "night": 0.8747010231018066,
                    "lol": 2.638267993927002,
                    "haha": 2.634207248687744,
                    "search": 2.507953405380249,
                    "naphnaphz": 2.226630210876465,
                    "what": 2.2073960304260254,
                    "is": 2.8012704849243164,
                    "life": 0.8696960806846619,
                    "math": 0.6537683606147766,
                    "image": 0.6786489486694336,
                    "hows": 0.1344195157289505,
                    "the": 2.8552865982055664,
                    "weather": 2.2900400161743164,
                    "in": 1.1194050312042236,
                    "surabaya": 0.8280453681945801,
                    "today": 1.3631619215011597,
                    "jakarta": 0.10765619575977325,
                    "meaning": 0.5666603446006775,
                    "of": 2.1089303493499756,
                    "tell": 0.2559483051300049,
                    "me": 0.326138436794281,
                    "love": 0.41928914189338684,
                    "definition": 1.465233325958252,
                    "humanity": -0.04665420204401016,
                    "destiny": 1.502500295639038,
                    "im": 0.08123824000358582,
                    "fine": -1.501901388168335,
                    "great": -0.40610140562057495,
                    "as": -0.3446940779685974,
                    "always": -0.7125339508056641,
                    "not": -1.453123927116394,
                    "that": -1.2395377159118652,
                    "pretty": -2.599703788757324,
                    "awful": -2.327167510986328,
                    "really": -2.3778936862945557,
                    "bad": -2.5441410541534424,
                    "please": 0.4639638066291809,
                    "it": 0.4813579022884369,
                    "rainy": 0.15092313289642334,
                    "check": 0.28777286410331726
                }
            },
            "2": {
                "bias": -1.9299553632736206,
                "weights": {
                    "hello": -1.1500004529953003,
                    "there": -1.386386752128601,
                    "how": -0.773787796497345,
                    "are": -0.6272764205932617,
                    "you": -0.7213294506072998,
                    "hey": -2.1854405403137207,
                    "hi": -2.1867733001708984,
                    "halo": -2.1841697692871094,
                    "its": -0.6463053226470947,
                    "going": -0.6981632709503174,
                    "hai": -2.176563262939453,
                    "whats": -0.7665544152259827,
                    "up": -1.332780122756958,
                    "good": 5.303650379180908,
                    "morning": 0.9670736193656921,
                    "evening": 0.9607771635055542,
                    "night": 0.9459397196769714,
                    "lol": -0.9814125895500183,
                    "haha": -0.9783383011817932,
                    "search": -1.5834681987762451,
                    "naphnaphz": -1.5332906246185303,
                    "what": -1.8446235656738281,
                    "is": -0.3176353871822357,
                    "life": -0.8552135229110718,
                    "math": -0.5734121203422546,
                    "image": -0.4813166856765747,
                    "hows": 0.1439589262008667,
                    "the": 1.6427446603775024,
                    "weather": 2.8575081825256348,
                    "in": 1.5192574262619019,
                    "surabaya": 0.9669078588485718,
                    "today": 2.230217456817627,
                    "jakarta": 0.1324790120124817,
                    "meaning": -1.190517544746399,
                    "of": -1.846799612045288,
                    "tell": -0.2599451243877411,
                    "me": -0.45234495401382446,
                    "love": -0.5242505073547363,
                    "definition": -0.8565837144851685,
                    "humanity": -0.12155250459909439,
                    "destiny": -0.7018869519233704,
                    "im": 1.6519917249679565,
                    "fine": 4.473021030426025,
                    "great": 1.5398448705673218,
                    "as": 1.8470537662506104,
                    "always": 1.6913561820983887,
                    "not": -1.60499906539917,
                    "that": -1.9456970691680908,
                    "pretty": 0.8097879886627197,
                    "awful": 0.9372488260269165,
                    "really": 0.8430672883987427,
                    "bad": 0.9042563438415527,
                    "please": 0.7520729899406433,
                    "it": 0.6251727342605591,
                    "rainy": 0.5184914469718933,
                    "check": 0.26792648434638977
                }
            }
        },
        {
            "greet": {
                "bias": 5.1139445304870605,
                "weights": {
                    "0": -7.6686506271362305,
                    "1": -6.4202775955200195,
                    "2": -11.457734107971191
                }
            },
            "extends_greet": {
                "bias": -2.4135212898254395,
                "weights": {
                    "0": 6.783110618591309,
                    "1": -7.4232258796691895,
                    "2": -7.105052947998047
                }
            },
            "greet_timecode": {
                "bias": -3.4988324642181396,
                "weights": {
                    "0": -9.216487884521484,
                    "1": -7.77310037612915,
                    "2": 8.449514389038086
                }
            },
            "filler": {
                "bias": -3.5439155101776123,
                "weights": {
                    "0": -5.6478142738342285,
                    "1": 5.786158561706543,
                    "2": -5.471378803253174
                }
            },
            "search_func": {
                "bias": -8.027263641357422,
                "weights": {
                    "0": 4.422280311584473,
                    "1": 6.610203742980957,
                    "2": -8.549118995666504
                }
            },
            "weather_func": {
                "bias": -7.936491012573242,
                "weights": {
                    "0": -7.72252082824707,
                    "1": 6.528476715087891,
                    "2": 4.310635566711426
                }
            },
            "good_mood": {
                "bias": -8.129350662231445,
                "weights": {
                    "0": 7.078427314758301,
                    "1": -8.550293922424316,
                    "2": 6.356952667236328
                }
            },
            "bad_mood": {
                "bias": 2.071528196334839,
                "weights": {
                    "0": -2.3537707328796387,
                    "1": -11.075002670288086,
                    "2": -0.4577569365501404
                }
            }
        }
    ],
    "outputLookup": true,
    "inputLookup": true,
    "activation": "sigmoid",
    "trainOpts": {
        "iterations": 20000,
        "errorThresh": 0.003,
        "log": true,
        "logPeriod": 100,
        "learningRate": 0.1,
        "momentum": 0.1,
        "callbackPeriod": 10,
        "beta1": 0.9,
        "beta2": 0.999,
        "epsilon": 1e-8
    }
}