{
    "sizes": [
        124,
        4,
        10
    ],
    "layers": [
        {
            "hello": {},
            "there": {},
            "how": {},
            "are": {},
            "you": {},
            "hey": {},
            "hi": {},
            "halo": {},
            "its": {},
            "going": {},
            "hai": {},
            "whats": {},
            "up": {},
            "good": {},
            "morning": {},
            "evening": {},
            "night": {},
            "lol": {},
            "haha": {},
            "search": {},
            "naphnaphz": {},
            "what": {},
            "is": {},
            "life": {},
            "math": {},
            "image": {},
            "hows": {},
            "the": {},
            "weather": {},
            "in": {},
            "surabaya": {},
            "today": {},
            "jakarta": {},
            "meaning": {},
            "of": {},
            "tell": {},
            "me": {},
            "love": {},
            "definition": {},
            "humanity": {},
            "destiny": {},
            "im": {},
            "fine": {},
            "great": {},
            "as": {},
            "always": {},
            "not": {},
            "that": {},
            "pretty": {},
            "awful": {},
            "really": {},
            "bad": {},
            "please": {},
            "it": {},
            "rainy": {},
            "check": {},
            "hawo": {},
            "here": {},
            "r": {},
            "nice": {},
            "too": {},
            "nope": {},
            "just": {},
            "want": {},
            "to": {},
            "say": {},
            "": {},
            "was": {},
            "your": {},
            "day": {},
            "well": {},
            "broke": {},
            "also": {},
            "doing": {},
            "sick": {},
            "whoa": {},
            "thats": {},
            "hear": {},
            "one": {},
            "job": {},
            "glad": {},
            "awesome": {},
            "lit": {},
            "happy": {},
            "were": {},
            "aelz": {},
            "amazing": {},
            "nicee": {},
            "ey": {},
            "universe": {},
            "quantum": {},
            "3x3": {},
            "matrices": {},
            "so": {},
            "surabaa": {},
            "yogyakarta": {},
            "would": {},
            "have": {},
            "a": {},
            "breakfast": {},
            "with": {},
            "lets": {},
            "dinner": {},
            "wanna": {},
            "eat": {},
            "together": {},
            "lunch": {},
            "go": {},
            "mature": {},
            "person": {},
            "tokyo": {},
            "civilization": {},
            "ow": {},
            "ttokyo": {},
            "hm": {},
            "at": {},
            "do": {},
            "know": {},
            "forecast": {},
            "about": {},
            "show": {},
            "ell": {},
            "wether": {},
            "nite": {}
        },
        {
            "0": {
                "bias": -0.6920604705810547,
                "weights": {
                    "hello": -2.0027687549591064,
                    "there": -0.30251967906951904,
                    "how": -0.04105958715081215,
                    "are": 0.029239462688565254,
                    "you": -0.8926184177398682,
                    "hey": -1.404235601425171,
                    "hi": -1.9062964916229248,
                    "halo": -1.8931465148925781,
                    "its": -0.34449559450149536,
                    "going": -0.17968778312206268,
                    "hai": -1.9047751426696777,
                    "whats": -0.1348542422056198,
                    "up": -0.44101113080978394,
                    "good": 4.557743549346924,
                    "morning": 0.30291321873664856,
                    "evening": 0.54339200258255,
                    "night": -0.6976566910743713,
                    "lol": 0.5250269174575806,
                    "haha": 0.5190205574035645,
                    "search": -1.443182110786438,
                    "naphnaphz": -1.3139960765838623,
                    "what": -2.1343142986297607,
                    "is": -0.767473042011261,
                    "life": -0.7876946926116943,
                    "math": -0.09954686462879181,
                    "image": -0.310003399848938,
                    "hows": 0.19887787103652954,
                    "the": 0.7304234504699707,
                    "weather": 1.8610867261886597,
                    "in": 1.342462182044983,
                    "surabaya": 0.7167134881019592,
                    "today": 0.15977203845977783,
                    "jakarta": 0.3954418897628784,
                    "meaning": -1.0294747352600098,
                    "of": -1.7422571182250977,
                    "tell": -0.24138344824314117,
                    "me": -1.0142490863800049,
                    "love": -0.4785885810852051,
                    "definition": -0.7272230982780457,
                    "humanity": -0.22039636969566345,
                    "destiny": -0.5900829434394836,
                    "im": 0.7666761875152588,
                    "fine": 3.851691961288452,
                    "great": 1.8960721492767334,
                    "as": 1.3164234161376953,
                    "always": 1.3301804065704346,
                    "not": -0.39641812443733215,
                    "that": 0.17111709713935852,
                    "pretty": 0.03753803297877312,
                    "awful": 0.11314200609922409,
                    "really": 0.049427252262830734,
                    "bad": 0.10267406702041626,
                    "please": 0.37513402104377747,
                    "it": 0.5923029184341431,
                    "rainy": 0.34573420882225037,
                    "check": 0.1608770787715912,
                    "hawo": -2.0138590335845947,
                    "here": -0.9257766604423523,
                    "r": -0.16196873784065247,
                    "nice": 2.491605520248413,
                    "too": 0.5997182130813599,
                    "nope": -0.04347009211778641,
                    "just": -0.016949107870459557,
                    "want": -0.29926976561546326,
                    "to": 1.4233672618865967,
                    "say": -0.25933223962783813,
                    "": 0.41091325879096985,
                    "was": -0.30689167976379395,
                    "your": -0.28287822008132935,
                    "day": -0.19713377952575684,
                    "well": 0.5064951181411743,
                    "broke": -0.666740894317627,
                    "also": 0.7476539611816406,
                    "doing": 0.7085041403770447,
                    "sick": -0.659739077091217,
                    "whoa": 0.5556106567382812,
                    "thats": 1.7789751291275024,
                    "hear": 1.18694269657135,
                    "one": 0.19752545654773712,
                    "job": 0.26821842789649963,
                    "glad": 0.373393177986145,
                    "awesome": 0.8931264877319336,
                    "lit": 0.9070361852645874,
                    "happy": 0.08848150819540024,
                    "were": -0.26047483086586,
                    "aelz": -5.341675281524658,
                    "amazing": 2.442986249923706,
                    "nicee": 2.4258809089660645,
                    "ey": -0.06347881257534027,
                    "universe": -0.14540180563926697,
                    "quantum": -0.43472254276275635,
                    "3x3": -0.08913726359605789,
                    "matrices": -0.03647737205028534,
                    "so": 0.0961015522480011,
                    "surabaa": -0.09198103100061417,
                    "yogyakarta": 0.19713260233402252,
                    "would": -0.5676049590110779,
                    "have": -0.6218046545982361,
                    "a": -0.6339117288589478,
                    "breakfast": -0.13575492799282074,
                    "with": -0.9536146521568298,
                    "lets": -1.599869728088379,
                    "dinner": -0.8838655352592468,
                    "wanna": -0.4175904393196106,
                    "eat": -0.890780508518219,
                    "together": -0.8190901875495911,
                    "lunch": -0.2096308171749115,
                    "go": -0.6236794590950012,
                    "mature": -0.1913778930902481,
                    "person": -0.25179266929626465,
                    "tokyo": 0.2448730170726776,
                    "civilization": -0.2831669747829437,
                    "ow": 0.2000928521156311,
                    "ttokyo": -0.029282260686159134,
                    "hm": 0.0966731607913971,
                    "at": 0.1002836599946022,
                    "do": 0.24353110790252686,
                    "know": -0.09364409744739532,
                    "forecast": 0.2955920398235321,
                    "about": 0.15286733210086823,
                    "show": 0.13569068908691406,
                    "ell": -0.01717318221926689,
                    "wether": -0.043856192380189896,
                    "nite": 0.8055694699287415
                }
            },
            "1": {
                "bias": -0.39564788341522217,
                "weights": {
                    "hello": 0.08890334516763687,
                    "there": 0.07741471379995346,
                    "how": -0.9311298131942749,
                    "are": -0.7862535715103149,
                    "you": 0.44530558586120605,
                    "hey": 0.027938159182667732,
                    "hi": 0.014792767353355885,
                    "halo": 0.020916689187288284,
                    "its": -0.22427663207054138,
                    "going": -0.06748442351818085,
                    "hai": -0.0055878241546452045,
                    "whats": -0.7497737407684326,
                    "up": -0.8484752774238586,
                    "good": -0.8303858637809753,
                    "morning": -0.3373071253299713,
                    "evening": -0.06528331339359283,
                    "night": -0.08552084118127823,
                    "lol": 0.5225690603256226,
                    "haha": 0.5365789532661438,
                    "search": 2.1383419036865234,
                    "naphnaphz": 2.0845818519592285,
                    "what": 2.288167715072632,
                    "is": 3.051490068435669,
                    "life": 0.6231606006622314,
                    "math": 0.23422150313854218,
                    "image": 0.30332663655281067,
                    "hows": 0.4872799813747406,
                    "the": 2.611981153488159,
                    "weather": 2.439901113510132,
                    "in": 1.813055396080017,
                    "surabaya": 0.678394615650177,
                    "today": 0.31089264154434204,
                    "jakarta": 0.5153303742408752,
                    "meaning": 0.5685088634490967,
                    "of": 1.694107174873352,
                    "tell": 0.41469913721084595,
                    "me": 0.22140547633171082,
                    "love": 0.40724676847457886,
                    "definition": 1.3322802782058716,
                    "humanity": -0.22031202912330627,
                    "destiny": 1.4119861125946045,
                    "im": -1.2457083463668823,
                    "fine": -0.7923815250396729,
                    "great": 0.14856363832950592,
                    "as": -0.7018882036209106,
                    "always": -0.6857520341873169,
                    "not": -2.170778274536133,
                    "that": 0.4042309820652008,
                    "pretty": -1.3463108539581299,
                    "awful": -1.549481987953186,
                    "really": -1.4919596910476685,
                    "bad": -1.3980926275253296,
                    "please": 0.4690471887588501,
                    "it": 0.43432947993278503,
                    "rainy": 0.146434023976326,
                    "check": 0.13083389401435852,
                    "hawo": 0.08765038102865219,
                    "here": 0.15659700334072113,
                    "r": -0.34666767716407776,
                    "nice": 1.2632874250411987,
                    "too": -0.8423696756362915,
                    "nope": 0.0034941898193210363,
                    "just": -0.19172613322734833,
                    "want": -0.18402805924415588,
                    "to": 0.6984798312187195,
                    "say": -0.10056517273187637,
                    "": -0.22589069604873657,
                    "was": -0.06835180521011353,
                    "your": -0.1932213455438614,
                    "day": -0.2204379439353943,
                    "well": -1.6453291177749634,
                    "broke": -1.1205615997314453,
                    "also": -0.2108624428510666,
                    "doing": -0.39273601770401,
                    "sick": -1.1375467777252197,
                    "whoa": 0.5483258962631226,
                    "thats": 1.3463060855865479,
                    "hear": 0.66387540102005,
                    "one": 1.7515536546707153,
                    "job": 1.8004566431045532,
                    "glad": 0.7842068076133728,
                    "awesome": 0.31908461451530457,
                    "lit": 0.3833184242248535,
                    "happy": 1.0617272853851318,
                    "were": 1.9150782823562622,
                    "aelz": 0.3697551488876343,
                    "amazing": 0.8885588645935059,
                    "nicee": 0.8894220590591431,
                    "ey": -0.17882074415683746,
                    "universe": 0.22422325611114502,
                    "quantum": 0.5164899230003357,
                    "3x3": 0.3336241841316223,
                    "matrices": 0.07090990990400314,
                    "so": -0.1024923101067543,
                    "surabaa": -0.04824246093630791,
                    "yogyakarta": 0.40817520022392273,
                    "would": -0.3290265202522278,
                    "have": -0.14167839288711548,
                    "a": -0.07555138319730759,
                    "breakfast": -0.07149077951908112,
                    "with": -0.4675222337245941,
                    "lets": -0.19278143346309662,
                    "dinner": -0.04663557559251785,
                    "wanna": 0.01310326624661684,
                    "eat": -0.2856316566467285,
                    "together": 0.03358244150876999,
                    "lunch": -0.06530841439962387,
                    "go": -0.2439686805009842,
                    "mature": 0.2636365592479706,
                    "person": 0.2796987295150757,
                    "tokyo": 0.10864141583442688,
                    "civilization": 0.3475435972213745,
                    "ow": -0.07513422518968582,
                    "ttokyo": -0.024238597601652145,
                    "hm": 0.09807350486516953,
                    "at": -0.0072658248245716095,
                    "do": 0.1926562339067459,
                    "know": 0.03292296454310417,
                    "forecast": 0.5137657523155212,
                    "about": -0.02615426853299141,
                    "show": -0.04712052643299103,
                    "ell": -0.08859211206436157,
                    "wether": 0.08849543333053589,
                    "nite": -0.5317044854164124
                }
            },
            "2": {
                "bias": -1.2075634002685547,
                "weights": {
                    "hello": -1.10761559009552,
                    "there": -0.2584618628025055,
                    "how": 4.263617038726807,
                    "are": 1.741542935371399,
                    "you": -0.4002056419849396,
                    "hey": -0.7611588835716248,
                    "hi": -1.0468056201934814,
                    "halo": -1.059387445449829,
                    "its": 0.7283329367637634,
                    "going": 0.917835533618927,
                    "hai": -1.027369499206543,
                    "whats": 1.9714797735214233,
                    "up": 1.989399790763855,
                    "good": 2.720585823059082,
                    "morning": -2.5757057666778564,
                    "evening": -2.459275960922241,
                    "night": -2.709261417388916,
                    "lol": 0.5196939706802368,
                    "haha": 0.5241662263870239,
                    "search": 0.374275267124176,
                    "naphnaphz": 0.2371513545513153,
                    "what": 0.015482421033084393,
                    "is": 0.48323559761047363,
                    "life": 0.13313761353492737,
                    "math": 0.052487410604953766,
                    "image": 0.1202867180109024,
                    "hows": 0.18934734165668488,
                    "the": 0.4908137917518616,
                    "weather": 1.3671860694885254,
                    "in": 0.975606381893158,
                    "surabaya": 0.3502708375453949,
                    "today": 0.9543080925941467,
                    "jakarta": 0.24412964284420013,
                    "meaning": -0.08779365569353104,
                    "of": -0.0562918595969677,
                    "tell": -0.32876405119895935,
                    "me": 1.0246906280517578,
                    "love": -0.10542654991149902,
                    "definition": 0.17718356847763062,
                    "humanity": -0.2689448893070221,
                    "destiny": 0.42768898606300354,
                    "im": 0.936740517616272,
                    "fine": 3.8073534965515137,
                    "great": 1.116940975189209,
                    "as": 1.5247673988342285,
                    "always": 1.4249250888824463,
                    "not": -0.3423692584037781,
                    "that": -2.111440420150757,
                    "pretty": -0.10383303463459015,
                    "awful": 0.07361586391925812,
                    "really": -0.001575217116624117,
                    "bad": -0.02718193084001541,
                    "please": 0.22300145030021667,
                    "it": -0.2387550324201584,
                    "rainy": 0.2783254086971283,
                    "check": 0.10549535602331161,
                    "hawo": -1.0959213972091675,
                    "here": -0.48005586862564087,
                    "r": 0.8694407343864441,
                    "nice": -2.0287024974823,
                    "too": 3.7635865211486816,
                    "nope": 0.07687489688396454,
                    "just": -0.014643928036093712,
                    "want": 0.1977892965078354,
                    "to": -0.754539966583252,
                    "say": 0.1254548281431198,
                    "": 0.2691349387168884,
                    "was": 0.37695926427841187,
                    "your": 0.3623131811618805,
                    "day": 0.47136422991752625,
                    "well": 0.27821454405784607,
                    "broke": -0.9887886643409729,
                    "also": 0.8607685565948486,
                    "doing": 0.9938465356826782,
                    "sick": -0.9852861762046814,
                    "whoa": -0.8853461742401123,
                    "thats": -2.6283512115478516,
                    "hear": -0.8741305470466614,
                    "one": -3.720306634902954,
                    "job": -3.7415075302124023,
                    "glad": -1.3065727949142456,
                    "awesome": -0.5909289717674255,
                    "lit": -0.7546089291572571,
                    "happy": -1.221805214881897,
                    "were": -3.973081111907959,
                    "aelz": -0.5650227665901184,
                    "amazing": -2.1514296531677246,
                    "nicee": -2.1068501472473145,
                    "ey": -0.33994433283805847,
                    "universe": 0.11849592626094818,
                    "quantum": -0.029788684099912643,
                    "3x3": 0.08679870516061783,
                    "matrices": 0.09093531221151352,
                    "so": 0.21344542503356934,
                    "surabaa": 0.19411922991275787,
                    "yogyakarta": 0.14942114055156708,
                    "would": 0.9776139855384827,
                    "have": 0.7733920216560364,
                    "a": 0.8004146218299866,
                    "breakfast": 0.3923845887184143,
                    "with": 1.5499426126480103,
                    "lets": 2.0068578720092773,
                    "dinner": 1.0514906644821167,
                    "wanna": 0.41445982456207275,
                    "eat": 1.301274299621582,
                    "together": 0.8315529823303223,
                    "lunch": 0.394381582736969,
                    "go": 0.8582478165626526,
                    "mature": 0.19371236860752106,
                    "person": -0.0863049328327179,
                    "tokyo": 0.02776671200990677,
                    "civilization": 0.15084978938102722,
                    "ow": -0.15857695043087006,
                    "ttokyo": 0.047321438789367676,
                    "hm": -0.11527321487665176,
                    "at": -0.06977860629558563,
                    "do": 0.11598868668079376,
                    "know": 0.08073927462100983,
                    "forecast": 0.44211602210998535,
                    "about": 0.017464211210608482,
                    "show": -0.011637267656624317,
                    "ell": -0.16317589581012726,
                    "wether": 0.17895740270614624,
                    "nite": 1.979421854019165
                }
            },
            "3": {
                "bias": 0.1749611794948578,
                "weights": {
                    "hello": -2.0539052486419678,
                    "there": -0.8761258721351624,
                    "how": -3.1135361194610596,
                    "are": -1.0042486190795898,
                    "you": -0.3066287636756897,
                    "hey": -2.6917002201080322,
                    "hi": -1.991479754447937,
                    "halo": -1.986552119255066,
                    "its": -0.4457206428050995,
                    "going": -0.5699724555015564,
                    "hai": -1.9888659715652466,
                    "whats": -1.7128678560256958,
                    "up": -1.6866750717163086,
                    "good": 0.7724090814590454,
                    "morning": -3.301774024963379,
                    "evening": -3.796898126602173,
                    "night": -3.4848451614379883,
                    "lol": -0.3652033507823944,
                    "haha": -0.37831515073776245,
                    "search": 1.04850435256958,
                    "naphnaphz": 1.0609174966812134,
                    "what": 1.812658429145813,
                    "is": 0.7561755776405334,
                    "life": 0.7031725645065308,
                    "math": 0.2821013629436493,
                    "image": 0.2860543429851532,
                    "hows": -0.31788235902786255,
                    "the": -0.6430893540382385,
                    "weather": -1.8170353174209595,
                    "in": -1.3877836465835571,
                    "surabaya": -0.9073866605758667,
                    "today": -1.0034829378128052,
                    "jakarta": -0.46557343006134033,
                    "meaning": 0.7543079257011414,
                    "of": 1.2654155492782593,
                    "tell": 0.12275519967079163,
                    "me": 1.1295771598815918,
                    "love": 0.5317251086235046,
                    "definition": 0.6286067962646484,
                    "humanity": 0.11685443669557571,
                    "destiny": 0.5621689558029175,
                    "im": 1.309083342552185,
                    "fine": 1.4787938594818115,
                    "great": 0.9925265908241272,
                    "as": 0.4366329610347748,
                    "always": 0.2439906895160675,
                    "not": -0.0028837895952165127,
                    "that": 0.23022137582302094,
                    "pretty": 0.6625990867614746,
                    "awful": 0.41543564200401306,
                    "really": 0.5569000244140625,
                    "bad": 0.5223362445831299,
                    "please": -0.47214561700820923,
                    "it": -0.16761860251426697,
                    "rainy": -0.21972142159938812,
                    "check": 0.1324348747730255,
                    "hawo": -2.04862642288208,
                    "here": -0.34850579500198364,
                    "r": -0.7190150022506714,
                    "nice": 2.2202320098876953,
                    "too": 0.2503444254398346,
                    "nope": -0.259227454662323,
                    "just": -0.45157262682914734,
                    "want": -0.622868001461029,
                    "to": 0.8869396448135376,
                    "say": -0.44782784581184387,
                    "": -0.6521867513656616,
                    "was": -0.5624097585678101,
                    "your": -0.21038080751895905,
                    "day": -0.46624764800071716,
                    "well": 0.9748751521110535,
                    "broke": -0.19966302812099457,
                    "also": 0.05420510098338127,
                    "doing": -0.2641345262527466,
                    "sick": -0.202530637383461,
                    "whoa": 0.4909203052520752,
                    "thats": 1.9755868911743164,
                    "hear": 1.5979305505752563,
                    "one": 1.764183521270752,
                    "job": 1.7909060716629028,
                    "glad": 0.9111508131027222,
                    "awesome": 0.5353035926818848,
                    "lit": 0.5443215370178223,
                    "happy": 0.5763721466064453,
                    "were": 0.6772493124008179,
                    "aelz": -0.46065399050712585,
                    "amazing": 1.7465121746063232,
                    "nicee": 1.7835516929626465,
                    "ey": -0.645652174949646,
                    "universe": 0.26616111397743225,
                    "quantum": 0.10120928287506104,
                    "3x3": 0.19292446970939636,
                    "matrices": 0.23905238509178162,
                    "so": -0.20735029876232147,
                    "surabaa": 0.06741028279066086,
                    "yogyakarta": -0.38543063402175903,
                    "would": 0.8325929045677185,
                    "have": 0.7906162738800049,
                    "a": 0.9408455491065979,
                    "breakfast": 0.21217288076877594,
                    "with": 1.0884379148483276,
                    "lets": 1.6544564962387085,
                    "dinner": 1.0560929775238037,
                    "wanna": 0.20748093724250793,
                    "eat": 1.2109304666519165,
                    "together": 0.7440963387489319,
                    "lunch": 0.46779608726501465,
                    "go": 0.7086973190307617,
                    "mature": 0.051210757344961166,
                    "person": 0.33327245712280273,
                    "tokyo": -0.1610538512468338,
                    "civilization": 0.2738359868526459,
                    "ow": -0.011880765669047832,
                    "ttokyo": -0.034097060561180115,
                    "hm": -0.03335373103618622,
                    "at": -0.08258239179849625,
                    "do": 0.07408598810434341,
                    "know": -0.20706047117710114,
                    "forecast": -0.5255250334739685,
                    "about": 0.1266440898180008,
                    "show": 0.126190647482872,
                    "ell": 0.13989491760730743,
                    "wether": 0.01329986471682787,
                    "nite": 0.993392288684845
                }
            }
        },
        {
            "greet": {
                "bias": 5.783261299133301,
                "weights": {
                    "0": -8.60629653930664,
                    "1": -2.3596086502075195,
                    "2": -8.521363258361816,
                    "3": -4.634078502655029
                }
            },
            "extends_greet": {
                "bias": -2.571268081665039,
                "weights": {
                    "0": -2.780555248260498,
                    "1": -6.985466003417969,
                    "2": 7.846566677093506,
                    "3": -7.198596000671387
                }
            },
            "greet_timecode": {
                "bias": -1.9477592706680298,
                "weights": {
                    "0": 7.5081353187561035,
                    "1": -6.1808857917785645,
                    "2": -3.819263458251953,
                    "3": -7.778233051300049
                }
            },
            "filler": {
                "bias": -3.1768016815185547,
                "weights": {
                    "0": -0.4989372193813324,
                    "1": -0.6446160078048706,
                    "2": -0.7587506771087646,
                    "3": -0.07047107070684433
                }
            },
            "search_func": {
                "bias": -6.3195366859436035,
                "weights": {
                    "0": -7.471068859100342,
                    "1": 7.643465518951416,
                    "2": -2.0144004821777344,
                    "3": 2.87284779548645
                }
            },
            "weather_func": {
                "bias": -7.076966285705566,
                "weights": {
                    "0": 2.183908700942993,
                    "1": 7.816957950592041,
                    "2": 1.5487743616104126,
                    "3": -6.421900749206543
                }
            },
            "good_mood": {
                "bias": -10.961734771728516,
                "weights": {
                    "0": 6.43079948425293,
                    "1": -6.685467720031738,
                    "2": 7.325225830078125,
                    "3": 2.2738475799560547
                }
            },
            "bad_mood": {
                "bias": 0.44549617171287537,
                "weights": {
                    "0": -1.0738848447799683,
                    "1": -7.771582126617432,
                    "2": -4.592149257659912,
                    "3": 3.6297497749328613
                }
            },
            "good_compliment": {
                "bias": -5.740910053253174,
                "weights": {
                    "0": 3.202721118927002,
                    "1": -0.41828790307044983,
                    "2": -12.505386352539062,
                    "3": 6.696130752563477
                }
            },
            "eating_together_invitation": {
                "bias": -5.090646266937256,
                "weights": {
                    "0": -8.213639259338379,
                    "1": -6.32722806930542,
                    "2": 3.617372751235962,
                    "3": 6.437474250793457
                }
            }
        }
    ],
    "outputLookup": true,
    "inputLookup": true,
    "activation": "sigmoid",
    "trainOpts": {
        "iterations": 20000,
        "errorThresh": 0.002,
        "log": true,
        "logPeriod": 100,
        "learningRate": 0.1,
        "momentum": 0.1,
        "callbackPeriod": 10,
        "beta1": 0.9,
        "beta2": 0.999,
        "epsilon": 1e-8
    }
}